11
input	134
dense	8
leakyrelu	0.10000000149011612
dense	8
leakyrelu	0.10000000149011612
dense	8
leakyrelu	0.10000000149011612
dense	8
leakyrelu	0.10000000149011612
dense	1
sigmoid	0
5.81497406528797e-05
1.6103667e-01	-3.1829578e-01	3.0514234e-01	-1.0548589e-01	2.3782940e-01	1.1942134e-01	3.1694767e-01	-3.1105319e-01
8.1860483e-02	-3.3082822e-01	-1.5939865e-02	3.6173469e-01	-1.8989451e-01	3.3489462e-02	1.3171674e-01	-4.7339659e-02
-1.8069758e-01	-1.3198096e-01	7.7477641e-02	-5.9359677e-02	7.7062406e-02	-1.0881139e-01	-1.2776431e-01	4.4698298e-01
-1.8363398e-01	-2.3436151e-01	-2.5073591e-01	-1.2753439e-02	-2.0508020e-01	-1.6925789e-01	7.6687410e-02	-3.1237713e-01
-2.1102665e-01
-1.9327568e-01	-1.4975359e-01	-1.5387283e-01	-1.5685201e-01	-9.7958907e-02	-4.1514538e-02	-1.4341934e-01	-7.8768574e-02	-8.8680908e-02	-9.0749890e-02	-5.1599585e-02	5.4137416e-02	-5.1082663e-02	-2.6021648e-02	6.6512413e-02	7.3463462e-02	1.0908651e-01	1.4898188e-01	1.5025507e-01	1.7514135e-01	2.4488544e-01	1.8657650e-01	6.2679000e-02	1.3204193e-01	1.1515439e-01	2.5682542e-02	9.7937748e-02	5.1772469e-03	-1.5657867e-01	-9.7182550e-02	1.2580028e-01	1.9088712e-01	-6.6631041e-02	4.8395921e-02	-8.0033578e-03	-1.2597960e-02	5.7801507e-02	6.3434817e-02	-2.5894033e-02	-6.5336940e-03	-2.7290005e-02	-3.9835077e-02	-1.9413915e-02	1.2677653e-01	1.5391028e-02	2.8571224e-02	1.4084883e-02	1.9819804e-02	1.0214639e-01	2.3173090e-02	-9.2591256e-02	3.7135117e-02	-9.4426923e-02	-7.0040417e-04	-1.9095894e-02	-1.6716583e-01	6.1884387e-03	3.0181380e-02	-3.4614112e-02	-6.4302854e-02	-1.9029263e-02	-5.3842727e-02	1.6206825e-01	2.2438292e-01	3.0743627e-02	-9.7899467e-02	-1.3907762e-01	5.9566390e-02	8.2196929e-02	5.8850281e-02	6.3817404e-02	1.1535165e-01	7.7608943e-02	2.5265899e-02	9.4941817e-03	2.1442920e-02	-2.8108830e-02	3.3483863e-02	-8.0441952e-02	1.3564385e-02	-4.0198348e-02	-3.4914646e-02	-1.1199550e-03	-3.8816895e-02	-2.0992070e-02	-5.2620806e-02	-5.4353531e-03	5.6908585e-02	-2.1549217e-02	6.2800288e-02	2.3283400e-02	1.6046482e-01	1.1735672e-01	9.7947516e-02	7.5482741e-02	1.1163737e-01	2.6612183e-02	-6.0693983e-02	-5.3822801e-02	-4.0464662e-03	5.3997498e-02	6.4928561e-02	9.5207855e-02	8.8953592e-02	3.2881401e-02	7.5405002e-02	9.7056162e-03	-3.3388481e-02	-5.5018026e-02	-9.1973962e-03	6.6717766e-02	3.6355823e-02	-1.9830742e-03	1.0005685e-01	1.3514541e-01	6.2678635e-02	5.5005844e-04	2.0096333e-01	1.6852967e-01	7.4877754e-02	1.6531001e-01	9.0340458e-02	4.9001388e-02	1.0634343e-02	3.8214943e-03	6.4063273e-02	3.9761003e-02	-7.0670120e-02	1.0806289e-01	1.1967342e-01	-3.2541294e-02	1.6363256e-02	-1.6216068e-02	-3.2523638e-01	2.3367725e-01	1.7644018e-01	9.8593011e-02	3.8439594e-02	-4.8459962e-02	-6.0392614e-02	-1.3775928e-01	-4.6777651e-02	-1.5715922e-01	-6.0734194e-02	4.2221397e-02	5.8651287e-02	7.7061720e-02	8.6132407e-02	-1.8116786e-01	-8.3182298e-02	7.0249856e-02	1.4398292e-01	-1.1609145e-02	-2.1181983e-01	-1.3862152e-01	-6.7642294e-02	-3.0333418e-02	4.4913139e-02	1.6539022e-01	2.3489136e-01	1.8089680e-01	1.1855160e-01	2.3914796e-01	1.2887129e-01	4.5670342e-02	-2.5558706e-02	-3.6617346e-02	1.1347647e-02	-1.2494184e-02	4.7211401e-02	1.0220677e-03	-4.8132651e-03	-4.0125087e-02	-5.3784762e-02	-9.7718798e-02	-6.8793841e-02	-5.5176847e-02	4.7074419e-02	4.9237333e-02	9.0931013e-02	1.1299559e-01	1.4930746e-01	5.6159951e-02	3.6584727e-02	-6.7407764e-02	-2.7072059e-02	-4.2597272e-02	-1.2095757e-01	-5.5212028e-02	1.7871074e-01	5.1001430e-02	2.1225892e-02	-4.3614570e-02	-1.1064159e-01	-6.7121573e-03	-5.0428960e-02	1.2513311e-01	4.4579279e-02	2.1856122e-02	-5.5213951e-02	-3.2029025e-02	-3.2800928e-02	-3.0127972e-02	1.9155897e-02	5.5030109e-03	4.5290288e-02	9.8101035e-02	1.5524394e-02	-6.4582103e-03	-8.6368896e-02	-1.0744251e-01	-9.3044944e-02	-1.1918068e-01	-1.6790605e-01	-1.9216146e-01	-3.1212220e-01	-3.1341511e-01	-4.2906049e-01	-3.3588827e-01	-5.2378500e-01	-5.2783889e-01	-4.8073423e-01	-5.4391801e-01	-4.1686109e-01	-4.6847722e-01	-3.9486954e-01	-2.6362017e-01	-1.7766298e-01	-8.5253283e-02	-2.0963514e-02	1.6010197e-01	4.3774366e-02	-3.9837923e-02	-8.6055227e-02	1.7692260e-02	-1.1912128e-01	-2.3587491e-01	-1.5081303e-01	-2.4775077e-01	-3.0059379e-01	-3.0241051e-01	-3.0785441e-01	-3.7159878e-01	-4.4743380e-01	-3.9766091e-01	-3.7097934e-01	-4.5379761e-01	-3.6497197e-01	-3.5344774e-01	-4.2017230e-01	-3.8267595e-01	-3.8151631e-01	-2.4484922e-01	-1.4335813e-01	-9.9922508e-02	-4.5703638e-02	1.1063901e-01	7.5902291e-02	3.2862902e-02	9.9946074e-02	1.9983922e-01	3.6578778e-02	7.6788895e-02	1.3973112e-01	3.4710970e-02	4.5268789e-02	6.3836895e-02	2.1893474e-01	-2.4870440e-02	4.5697307e-03	4.6559136e-02	1.7128900e-02	-8.2324594e-03	9.7476266e-02	1.0249267e-01	2.0763461e-02	3.4025051e-03	-4.4931546e-02	-8.9542188e-02	-1.1295468e-01	-4.4170106e-03	-3.3973809e-02	1.9850144e-02	-1.3108667e-02	7.0429429e-02	-4.5518458e-02	-2.9446434e-02	2.1348869e-02	-3.4024157e-02	2.0327989e-03	-4.7936030e-02	-1.3431404e-02	1.5268938e-01	-4.2354368e-02	-1.8994398e-02	7.0941173e-02	-3.6121480e-02	-1.2158377e-02	6.7877676e-03	-4.4171318e-02	-1.2114858e-01	-1.2815622e-02	-3.6149245e-02	-2.2947723e-02	-3.3053953e-02	-1.3086665e-02	4.1339166e-02	-6.5872662e-02	3.3507727e-02	-2.8306182e-02	3.1135231e-02	5.6360241e-02	8.6400218e-02	1.9779606e-02	9.2213415e-02	6.3422181e-02	-8.6561851e-02	1.1896322e-02	-7.1861674e-03	-2.7366839e-02	-6.6927940e-02	2.0713499e-02	1.4732702e-01	-5.1333867e-02	-2.3882616e-02	1.2791189e-02	3.3578027e-02	-6.5811217e-02	-6.9333217e-03	9.1240481e-02	-1.3006566e-01	1.0054983e-01	4.2285968e-04	5.1327281e-02	1.3332242e-01	-1.2868503e-01	-9.9813432e-02	-1.5312250e-01	-1.4463288e-01	5.9510689e-02	-7.7385642e-02	1.5641350e-02	1.3047845e-02	-1.1641381e-02	1.8171884e-01	1.2046654e-01	1.5344127e-01	2.0504147e-01	2.1000420e-01	2.7592129e-01	2.6606187e-01	3.5492700e-01	2.7791739e-01	2.5610399e-01	2.5864682e-01	9.6901856e-02	1.0425866e-01	-1.4038451e-02	-5.8129426e-02	-1.0278229e-01	-2.9726559e-01	-4.3923908e-01	-3.3174619e-01	-3.0071810e-01	3.8202759e-02	-1.1087314e-01	-8.7576970e-02	-2.9128810e-02	1.8769590e-02	6.1626853e-03	6.5652393e-02	1.2988199e-01	3.9635446e-02	1.5062834e-01	8.5628152e-02	1.4731193e-01	2.0694095e-01	6.4097621e-02	1.0450117e-02	1.7087214e-02	-1.9744445e-02	-1.7340165e-01	-1.3501222e-01	-2.5345728e-01	-2.6292607e-01	-3.2773712e-01	-4.2741403e-01	-4.6349424e-01	-5.2503318e-01	-4.5699722e-01	-4.3364316e-01	-3.2584620e-01	-2.9276720e-01	-1.6285141e-01	-6.2205516e-02	2.0729437e-02	1.1424121e+00	-4.4262898e-01	-2.0251886e-03	-5.6532137e-03	1.9891416e-03	1.6209530e-02	1.2546103e-02	6.7303799e-02	3.1723864e-03	8.5449889e-02	-1.5348162e-01	4.7997154e-02	1.1039490e-01	-6.1086614e-02	-1.6515754e-02	-2.6430609e-02	1.5455063e-02	-3.3580229e-02	-5.9252214e-02	-2.3624996e-02	1.0752127e-01	2.2266519e-03	-5.3805988e-02	-1.8942086e-01	2.2202961e-03	1.3185538e-01	7.9827666e-02	4.5761399e-02	9.2221625e-02	8.8864647e-02	-4.8269968e-02	-1.0384339e-01	8.3731757e-03	3.2534277e-01	3.4011659e-01	2.4985470e-01	5.8226932e-02	5.4241959e-02	-1.6922513e-01	-2.0993736e-03	3.4709852e-02	7.5488640e-03	-2.8128864e-03	5.5736993e-02	1.3016611e-02	-3.8962882e-02	-3.9436445e-02	1.3758541e-02	-2.3203290e-03	1.6132522e-02	-6.0082018e-02	-2.1519078e-02	1.6431307e-02	1.7108956e-02	3.6215849e-02	-2.3175284e-02	8.8911667e-02	5.6927938e-02	1.6201568e-01	-7.0686296e-02	-4.0718298e-02	-1.4438628e-01	5.6104448e-02	7.3285415e-03	8.3537415e-02	-3.0858627e-02	-5.1944025e-02	6.8321154e-02	-1.3516144e-01	1.0823675e-03	-5.6105439e-02	1.2175647e-01	1.2864235e-01	1.3010129e-01	-5.1332120e-02	-5.3443883e-02	-5.9620026e-02	-1.2360516e-01	-1.7409118e-01	-2.5096071e-01	-1.9332761e-01	-2.4480958e-01	-1.6123307e-01	-7.5935856e-02	-8.8494308e-02	-5.8057290e-02	1.3323869e-01	8.9733705e-02	1.6818230e-01	1.4087483e-01	1.5188631e-01	2.5429845e-01	2.7931130e-01	1.8481131e-01	3.2693109e-01	3.4222531e-01	2.4785884e-01	2.1062633e-01	1.9977407e-01	1.9270095e-01	1.3731673e-01	1.6483822e-01	-8.8456832e-03	-2.2074271e-02	-6.7180349e-03	1.8003780e-02	-2.2073078e-03	-1.2768331e-03	5.1696446e-02	-4.1801948e-02	1.7092532e-02	-4.2855129e-02	-5.2324787e-02	1.8654630e-02	2.7824566e-02	-8.2751796e-02	-1.2930048e-01	-6.8913974e-02	-1.2608393e-01	-1.4512721e-01	-1.1984345e-01	-9.0474591e-02	-1.1323082e-01	-1.8463376e-01	-1.2200280e-01	-1.2499338e-01	-7.5068206e-02	-3.1356864e-02	-9.1802105e-02	-1.0949205e-01	-4.6629772e-02	-1.7749247e-01	-3.6910173e-02	6.4465189e-03	-1.9897208e-01	-2.6066175e-01	6.1066225e-03	7.3696822e-02	-4.0657248e-02	6.5890390e-01	1.6562948e-02	-1.6877136e-01	-2.1431884e-02	-1.4272723e-01	5.0281450e-02	1.1047763e-01	1.1008386e-01	1.2874176e-01	1.0011993e-01	-6.4627372e-02	-7.5835034e-02	-7.4664079e-02	-1.0914277e-01	2.5776496e-02	1.0265651e-01	1.2392418e-01	-7.7961631e-02	-4.9965452e-02	7.5005457e-02	8.9898542e-02	-3.9175805e-02	-1.1966774e-01	4.1413076e-02	3.3074447e-03	-1.0874747e-01	1.6697544e-01	3.9863199e-02	-6.0251649e-02	-1.1894545e-02	7.2936997e-02	5.3471699e-02	-1.0821576e-01	-2.3360493e-02	-5.1027957e-02	4.2931270e-02	1.2246331e-02	-2.4959356e-02	2.4890273e-03	3.0608010e-02	4.0536176e-02	-6.2036667e-02	2.7573360e-02	7.1789913e-02	-6.0527667e-02	-3.6189745e-03	-1.2856310e-02	-3.9748680e-02	5.3888485e-02	7.8585595e-02	3.2772575e-02	5.9583262e-02	-5.1005375e-02	1.0736969e-01	-4.0277116e-02	-2.2435777e-01	9.8696779e-03	9.7404413e-02	-6.2242646e-02	-2.0140396e-02	8.8151675e-03	1.2762175e-02	-6.2099956e-02	-9.5915385e-02	2.8543335e-01	1.6290694e-02	6.7418732e-02	-6.0975414e-02	9.7748665e-03	-9.2233434e-02	-8.3915563e-03	-1.9079562e-02	-1.6165430e-02	3.9561973e-03	-4.6965051e-03	-9.0102592e-05	1.2064208e-03	1.1870668e-02	-6.0615912e-02	4.7529422e-02	1.7166201e-02	9.8632798e-02	1.2213257e-01	5.9728902e-02	1.2367716e-01	1.4885993e-01	-9.3014743e-03	1.9488940e-01	1.8926410e-01	9.0880223e-02	1.8598464e-01	5.7434078e-02	1.5697843e-01	1.4793779e-01	3.1096441e-01	1.6501833e-01	2.4454913e-01	4.0283543e-03	9.4294526e-02	4.3491978e-02	8.1513725e-02	-1.2360479e-01	-1.7006958e-01	-1.9737430e-01	-4.7982294e-02	-6.9671229e-02	-1.0009290e-01	-4.8206527e-02	2.5098521e-02	-5.2069314e-02	-6.0615532e-02	1.1010540e-01	2.3722313e-01	2.0562296e-01	3.2220855e-01	3.0318329e-01	4.5916846e-01	4.5451811e-01	5.6462896e-01	5.4944682e-01	5.2818000e-01	5.4069561e-01	4.8536143e-01	4.8188025e-01	3.8245735e-01	3.6200330e-01	2.3997536e-01	2.2385480e-01	2.1775538e-01	1.4990762e-01	1.5943992e+00	9.1857854e-03	-4.2315733e-04	1.3792654e-02	6.5343037e-02	7.7422000e-02	1.2775794e-01	4.6623111e-02	2.9105840e-02	-3.3153843e-02	2.2306431e-02	-7.2132774e-02	-6.2290370e-02	-5.0942056e-02	2.5403844e-02	1.5821624e-01	2.0137469e-01	1.1888268e-01	5.8052153e-03	-1.2905873e-01	-1.5045351e-01	6.5459207e-02	8.5021086e-02	-2.1129118e-03	-5.8752108e-02	1.7487766e-01	3.4052113e-01	1.2382456e-01	-1.7130393e-01	-3.1936476e-01	-3.5663378e-01	-9.0356141e-02	1.0559570e-01	2.2089508e-01	2.5036302e-01	2.7498272e-01	2.6596528e-01	1.1467418e-02	-1.9503858e-02	-2.0130148e-02	-6.0470536e-02	1.0252119e-03	-6.3886292e-02	-3.0743485e-02	-3.8488276e-02	-8.9720283e-03	1.9329075e-02	-3.5605840e-02	4.1655861e-03	4.5751099e-02	2.7048424e-02	-3.4976847e-02	-1.0607401e-01	-1.2875493e-01	-3.2611400e-02	1.1520235e-01	1.6036592e-01	5.4946128e-02	-6.1789464e-02	-1.0633516e-01	-3.1947799e-02	-4.4150792e-02	9.2985645e-02	7.9612315e-02	9.3459941e-02	-3.1400524e-02	-7.5850874e-02	-3.3741020e-02	-3.8977604e-02	2.0370265e-03	-3.6256853e-02	-6.7571662e-02	-6.0625888e-02	-2.0525217e-02	6.8958215e-03	2.9336086e-02	5.7867710e-02	1.1622268e-01	1.5529990e-01	1.0251269e-01	1.5542379e-02	2.4431759e-02	1.1761661e-01	4.3294292e-02	5.8977515e-02	-7.0119493e-02	-5.6135230e-02	-2.7367203e-02	-8.5772499e-02	-1.6342388e-02	-1.1042302e-01	-6.8364307e-02	-1.9237702e-01	-2.2043666e-01	-1.3895631e-01	-2.4228688e-01	-1.7607890e-01	-2.0535040e-01	-2.1338141e-01	-1.8948722e-01	-1.5630141e-01	1.8302863e-02	-1.4589874e-01	-1.3654242e-01	-1.2030532e-01	-4.6262540e-02	7.0814295e-03	5.6685328e-02	1.1256999e-01	9.0796426e-02	2.2384104e-01	1.8289264e-01	2.0249245e-01	1.7789090e-01	1.5270931e-01	1.8768436e-01	3.3995464e-02	5.0120637e-02	3.0579822e-02	-7.2100930e-02	-1.8638504e-01	-8.8488057e-02	-2.1220101e-01	-2.2295271e-01	-2.4401709e-01	-2.8546038e-01	-2.7075452e-01	-1.2156272e-01	-2.3758432e-01	-1.0834832e-01	-1.2228364e-01	-6.1872862e-02	-4.2430319e-02	1.1496858e-01	6.6208863e-01	7.2433410e-04	-1.0762152e-02	-2.8344782e-02	-1.0565046e-01	-4.7883261e-02	-8.8765845e-02	-1.0603369e-01	-1.6967618e-01	-1.3260166e-01	-1.8381454e-02	6.3355014e-02	8.5415378e-02	6.3577943e-02	1.0490435e-01	6.9036037e-03	1.3290963e-02	1.1066549e-02	-1.0217035e-02	1.0816666e-01	9.8627530e-02	-6.3824043e-02	-1.0230561e-01	-3.3346407e-02	-1.5338603e-01	-2.8649822e-03	1.3086265e-01	2.0309426e-01	8.5953087e-02	-6.0635049e-02	-9.8120891e-02	7.0738897e-02	8.9410260e-02	-9.2965163e-02	-7.4091420e-02	1.6523171e-03	1.1953657e-01	-3.7804372e-03	2.3258254e-02	-1.2780319e-02	1.5370059e-03	-2.2511229e-02	1.5475559e-02	-3.9145057e-03	-8.9231189e-03	-7.9716504e-02	3.5358572e-03	-1.9130806e-03	5.9168518e-02	1.0172987e-02	-2.4836263e-02	4.0601324e-02	-7.8612551e-02	-1.8895738e-02	-3.9435726e-02	-3.5233054e-02	3.3384714e-02	-2.6189173e-02	2.9212078e-03	3.1470619e-02	1.1755067e-01	-7.5743660e-02	-1.5323727e-02	8.6878883e-03	5.9399664e-02	-5.9450526e-02	6.1297338e-02	7.1415142e-03	-2.5139866e-02	1.4916624e-01	9.2258774e-02	6.9937102e-02	-5.5592405e-03	-5.6791265e-02	-1.4434695e-01	-1.3364334e-01	-1.3237953e-01	-8.4625550e-02	-3.5457902e-02	-9.0779312e-02	-8.4944971e-02	-4.5315582e-02	6.5353334e-02	-1.8820378e-01	-1.6298627e-02	5.8287708e-03	-7.3354408e-02	3.2045051e-02	-8.5466460e-04	1.6703401e-03	-5.2484427e-02	-7.3099375e-02	-1.1888275e-01	-1.0509862e-01	-8.7375171e-02	-4.5481101e-02	-1.4278813e-01	-1.3798288e-01	-5.2722450e-02	-4.5659594e-02	-1.1691454e-01	7.1673812e-03	-4.1962810e-02	-8.1797197e-02	-1.4594163e-02	2.8627628e-02	-4.5664873e-02	-4.4719917e-03	6.6323623e-02	2.9117659e-02	7.4512228e-02	6.4656526e-02	3.0586243e-02	-5.4608285e-03	9.9851675e-03	-1.2934033e-02	-8.9132264e-02	-2.6695067e-02	-7.7021413e-02	-1.2788735e-01	-9.0494670e-02	-1.1850531e-01	1.7260553e-02	-7.0612080e-02	6.6846602e-02	6.2978618e-02	1.4640470e-01	1.5576823e-01	2.1554233e-01	2.2229013e-01	1.8238415e-01	1.3527210e-01	9.7338907e-02	-1.3680901e-01	1.7155161e-01	-4.4327313e-01	-9.2747605e-01	4.0714204e-01	1.4043701e-01	-5.0377473e-02	4.2245511e-02	1.0518332e-01	-1.1499493e-01	-3.8067110e-02	5.2315366e-02	7.7089563e-02	6.9894493e-02	1.0154416e-01	-7.5059780e-03	-9.5224164e-02	-8.8171445e-02	-1.0176307e-01	-2.1881521e-02	8.8872701e-02	6.7995414e-02	-9.3146451e-02	-8.1514210e-02	2.4028834e-02	9.1627225e-02	-5.8126856e-02	-8.3442003e-02	1.2515643e-01	3.0553196e-02	-1.0348134e-01	2.4984693e-03	8.6726934e-02	1.2247381e-01	-7.0995711e-02	-9.3831070e-02	-1.9129644e-01	7.5739427e-03	-4.7312599e-02	-1.1353781e-02	-7.6827977e-04	1.1503384e-02	1.2976223e-01	8.5418157e-02	4.2662203e-02	2.2955021e-02	5.3509641e-02	-4.6254996e-02	3.2286882e-02	-8.0494255e-02	-6.1189905e-02	-1.0874067e-01	-2.6500139e-02	1.7513474e-02	-7.1916968e-02	3.5545275e-02	-4.7803272e-02	-1.8092701e-02	6.6753202e-03	-6.5954223e-02	5.0713282e-02	1.3827774e-01	-3.1041143e-02	-5.5599526e-02	3.0033397e-02	-2.7236506e-02	-1.2818447e-02	8.5950181e-02	-4.2553931e-02	6.9550842e-02	-1.4815581e-01	8.2394831e-02	1.3015696e-01	1.3746718e-02	3.1162813e-02	-1.2749584e-02	8.4648110e-02	-4.6266418e-02	1.0215308e-01	-7.7822484e-02	-1.0096654e-02	1.6732544e-02	4.4829231e-03	-2.3626534e-02	6.3976988e-02	-1.2766321e-01	-1.5826717e-01	-1.5576154e-01	-2.0454848e-01	-2.1701598e-01	-2.8276405e-01	-3.3242291e-01	-3.2232255e-01	-3.3810070e-01	-3.6755401e-01	-3.3582321e-01	-3.1107959e-01	-2.4721307e-01	-2.7049437e-01	-3.0112481e-01	-1.0293362e-01	-5.5402922e-03	-8.0058612e-03	2.6971871e-02	6.1557408e-02	3.3365688e-04	1.6087374e-01	3.0790098e-02	-5.4179713e-02	3.1993762e-02	-1.2014259e-01	-6.4593226e-02	-7.0751853e-02	-7.9500340e-02	-4.7980133e-02	-7.9834521e-02	-2.7447706e-01	-1.1653837e-01	-1.6961248e-01	-2.0125209e-01	-5.5200625e-02	-9.3362294e-02	2.8202482e-02	9.7807609e-02	1.3038568e-01	3.2300127e-01	4.9137685e-01	5.6338209e-01	7.1568441e-01	7.2206122e-01	7.1971697e-01	6.9124937e-01	5.0053644e-01	3.5922003e-01	-9.3684268e-01	-5.6875056e-01	3.9465884e-03	-3.3435466e-05	-7.9678893e-03	-9.0479143e-02
-6.6252065e-01	-9.5892465e-01	6.4635473e-01	1.9522300e-01	5.2754962e-01	-6.0249555e-01	-8.7147281e-02	7.9131019e-01	-1.3761371e-01	-2.7543774e-01	6.3742423e-01	1.1064040e-01	5.3086549e-01	-3.3695452e-02	3.6961868e-01	4.8207128e-01	-3.8152188e-01	-4.0449640e-01	8.6384773e-01	3.9873722e-01	8.3517861e-01	2.4890879e-01	2.2069216e-01	6.2587541e-01	-1.0778054e-01	-1.4337468e-01	-2.2043345e+00	1.9305982e-02	-1.2668031e+00	-1.4757532e-01	-2.2227660e-02	-9.7325855e-01	-8.9388210e-01	1.4691986e-02	6.1316293e-01	4.9266887e-01	1.2487535e+00	-6.7965949e-01	-6.4818874e-02	3.3683905e-01	-1.5087764e-01	-4.3733904e-01	4.5457549e-02	-3.8022214e-01	-1.6401184e+00	-6.1194402e-01	-1.6795207e-02	1.4794897e-01	-2.9647961e-01	-4.9338982e-01	5.9700537e-01	3.2651541e-01	2.9291695e-01	2.6598029e-02	5.6991947e-01	4.3180713e-01	1.0732371e-01	1.4927465e-01	8.2955098e-01	-5.1719624e-01	2.8279966e-01	4.8897824e-01	7.2314060e-01	4.2600155e-01
1.3696983e-01	6.4846289e-01	2.2596060e-01	-7.6350760e-01	3.3054578e-01	-1.4509778e-03	2.7596479e-02	-2.6400682e-01	6.0960680e-01	-1.8626268e+00	3.6269152e-01	-4.8293278e-01	1.5517002e-01	-1.4575669e-01	6.9968231e-02	5.4723132e-01	1.9071667e-01	-6.1149049e-01	-2.5404829e-01	-3.4069601e-03	7.4465245e-01	-1.9920985e-01	5.0370234e-01	3.1868134e-02	-4.5340571e-01	-2.5938088e-01	-5.4318500e-01	9.9843726e-02	1.3120128e-01	3.7104964e-01	-7.2371751e-01	-2.1293807e-01	4.9395984e-01	-1.1613947e+00	5.4585540e-01	-5.3216785e-02	-2.6481727e-01	-1.7216717e-01	6.4991134e-01	-2.4629919e-01	2.8361180e-01	5.9184551e-01	-5.4807299e-01	-1.8640083e-01	1.6127805e-01	-3.0009893e-01	7.2280355e-02	2.1450461e-01	-8.3306521e-02	5.7967794e-01	-2.2795802e-01	-3.8436088e-01	-1.8133451e-01	2.6592365e-01	-2.4089691e-01	-3.5871851e-01	-1.0429469e+00	-2.6202327e-01	-6.7395812e-01	1.7299606e+00	-1.0896569e+00	6.4184320e-01	-1.4336007e-02	-1.6624306e+00
2.4947390e-02	-7.1685326e-01	-4.9199292e-01	1.5737243e-01	-5.1664114e-01	3.9595124e-01	-4.4329730e-01	7.3069133e-02	3.5380584e-01	-8.6686617e-01	-5.8674965e-02	6.9108367e-01	-1.1287212e-01	2.5747871e-01	4.7345299e-01	9.2365265e-02	4.2392588e-01	-4.9356094e-01	-1.9947222e-02	5.6146580e-01	1.3565266e-01	2.8291687e-02	2.5803417e-01	-3.9955676e-02	-5.8348238e-01	5.8068550e-01	6.6665524e-01	-4.7787327e-01	5.8812499e-01	-4.3822769e-02	2.4748932e-01	-2.7558298e+00	2.2982569e-02	-5.3113550e-02	5.7712547e-02	-2.8766006e-01	-4.0314913e-01	-9.5947772e-02	-4.8594967e-01	3.5424881e-02	4.0784624e-01	1.1882503e+00	-4.7778630e-01	3.6284843e-01	-8.1390217e-03	4.3674085e-01	-4.4926724e-01	3.9656465e-03	-7.0342761e-01	5.2033603e-01	4.4502419e-01	-4.0050623e-01	4.8135090e-01	-8.5397673e-01	-6.8808347e-01	-2.6761212e+00	6.4662963e-01	5.0480962e-01	-3.5914956e-03	5.2331275e-01	-1.8967685e-01	3.2303756e-01	5.5390835e-01	1.8322559e-01
3.9485255e-01	4.3717307e-01	7.9225856e-01	-1.0100409e+00	3.3355859e-01	1.0847712e+00	-1.0793482e+00	5.6790930e-01
