11
input	134
dense	8
leakyrelu	0.10000000149011612
dense	8
leakyrelu	0.10000000149011612
dense	8
leakyrelu	0.10000000149011612
dense	8
leakyrelu	0.10000000149011612
dense	1
sigmoid	0
0.0001215766606037505
3.9294776e-02	3.2337135e-01	-9.9604405e-02	1.9975945e-01	2.4976103e-01	1.9329004e-01	5.3531986e-02	-3.1134391e-01
1.5374342e-02	-1.6037193e-01	5.6132651e-03	-3.6062819e-01	-7.0468761e-02	4.2782318e-02	1.3310336e-01	-3.9643174e-01
-5.5553783e-02	-4.9981095e-02	-1.5183847e-01	2.6507246e-01	-1.7809768e-01	-1.8865554e-01	-8.0288947e-02	-4.1150797e-02
-1.3205265e-01	-2.8332049e-02	5.5809096e-02	-3.3486772e-02	3.7651071e-01	-3.3155549e-02	-1.1836059e-01	-1.1570465e-01
7.7852443e-02
-2.7818066e-01	-2.9293570e-01	-2.2930150e-01	1.3359971e-01	1.9097281e-01	2.2461447e-01	2.2627568e-01	1.4732213e-01	1.3930178e-01	8.8043079e-02	1.0159127e-01	8.7512448e-02	6.4825065e-02	-2.5921090e-02	4.4289352e-03	-8.9364856e-02	-5.0379012e-02	-1.2726273e-01	-1.0594457e-01	-1.8130088e-01	-6.2067557e-02	-1.0360710e-02	5.3956166e-02	6.6347912e-02	3.4885556e-02	1.6040441e-01	1.0625032e-01	2.3786192e-01	2.1687050e-01	2.3908623e-01	1.2529761e-01	-1.8434291e-01	1.5370239e-01	3.4306027e-02	9.7390739e-03	5.0789651e-02	1.3258270e-02	-7.8539297e-02	9.6369743e-02	7.4618645e-02	1.2935531e-02	-3.7833128e-02	-4.2331595e-02	2.9300895e-02	7.1209766e-02	-1.3247718e-02	-5.7712668e-03	1.8728737e-02	1.0513072e-01	1.0613032e-01	1.0642220e-01	-7.9683429e-03	-7.1689390e-02	-5.1795915e-02	-1.6208261e-01	-1.6548510e-01	-1.5066972e-01	-8.2691513e-02	2.2605273e-03	3.5718888e-02	8.4867232e-02	-1.0081931e-01	-2.2860751e-02	-5.3288685e-03	6.8088755e-02	1.5844406e-01	1.3431299e-02	8.2450762e-02	8.5940443e-02	-3.7127603e-02	-1.1417445e-02	-3.1616572e-02	-4.8095010e-02	-2.4743412e-02	-1.0969006e-01	-4.0955897e-02	-1.9611955e-02	-1.1714078e-01	-5.1303472e-02	-5.8944896e-02	-1.7954412e-01	-9.7884618e-02	-8.0333449e-02	-7.2863035e-02	-1.1973651e-01	-9.3708768e-02	-1.9981413e-01	-6.2515482e-02	-8.1251383e-02	-1.5223444e-01	-1.2325970e-01	-4.7600079e-02	-7.3525958e-02	-7.1301818e-02	-7.5430535e-02	-8.9676693e-02	1.3544262e-02	9.8432293e-03	4.2512976e-02	7.3228545e-02	1.2923896e-01	1.1150594e-02	-2.5241986e-02	4.7456287e-02	3.5381233e-03	-2.6781416e-02	-4.4606294e-02	-1.1257520e-03	-5.7930060e-02	-1.0179614e-02	-1.4939429e-02	-1.4053185e-02	2.8916944e-02	-2.4161418e-04	5.7465043e-02	1.8765910e-02	2.8385533e-02	1.3519682e-02	3.3968195e-02	-3.3011143e-03	6.6200368e-02	9.4515756e-02	1.5894727e-01	1.2025347e-01	1.4783318e-01	3.9232552e-02	5.0743926e-02	1.8099886e-01	1.4326081e-01	-5.8959961e-02	-8.4771931e-02	-1.6278766e-01	2.8660577e-02	1.7886820e-01	-2.9852137e-01	-3.1348178e-01	-2.6597169e-01	-2.1871651e-02	7.4686348e-02	-2.7403941e-02	2.8586790e-02	5.3924616e-02	-2.9822133e-02	-1.3945105e-02	3.9161582e-02	1.6213451e-01	2.3439007e-01	1.2724720e-01	1.2991594e-01	-8.4526716e-03	-1.4233676e-02	-2.7312793e-02	6.4711586e-02	1.5927956e-02	-5.3931791e-03	-3.4527872e-02	9.1330878e-02	3.1742513e-02	-2.5589455e-02	-5.3125352e-02	-1.4459473e-01	-2.2272982e-01	-1.9453014e-01	7.8937337e-03	1.1937487e-01	5.3871747e-02	8.2979329e-02	-6.8223141e-02	4.3374404e-02	1.2960741e-01	-2.5159046e-02	-7.8491956e-02	1.8689409e-02	2.4579024e-02	-1.3572326e-01	-2.5252866e-02	-9.9821694e-02	-1.2004562e-01	-1.0108583e-01	1.3560674e-02	-6.1483374e-03	-5.0229609e-02	-1.1697161e-01	7.4760370e-02	-1.0103802e-02	-4.1914031e-02	1.3234586e-01	1.1298516e-01	2.0373147e-02	2.6569592e-02	4.3746877e-02	6.1469909e-02	-9.8849069e-03	6.7854844e-02	3.2473985e-02	-2.8368178e-01	2.1112986e-02	3.5931808e-01	8.8401310e-02	9.7612634e-02	4.7735702e-02	-1.8865082e-02	-6.6293389e-02	-7.9293825e-02	-5.1544003e-02	2.5114851e-02	-5.3242370e-02	-3.4107734e-02	6.6741228e-02	-3.4782052e-02	1.9450935e-02	-1.0745518e-01	-3.8072582e-02	-2.1892540e-02	-1.1743557e-01	-3.2543510e-02	-1.7064026e-01	-1.7044233e-01	-2.3040183e-01	-3.1505167e-01	-2.9204902e-01	-2.8597787e-01	-3.1353739e-01	-2.9799148e-01	-4.6827808e-01	-3.7286389e-01	-3.5485125e-01	-5.0837535e-01	-4.0146732e-01	-4.2105728e-01	2.1190716e-02	-6.7731187e-02	-1.2371010e-01	-7.4712552e-02	-2.4575131e-02	4.7402505e-02	1.6903116e-01	8.7027460e-02	9.7316921e-02	1.6253212e-01	1.4078413e-01	1.3292639e-01	1.9264123e-01	1.8315348e-01	2.3784560e-01	1.7244466e-01	3.0619082e-01	2.6678571e-01	2.5590762e-01	3.4661981e-01	3.0376011e-01	3.7144387e-01	4.2893451e-01	5.5415058e-01	6.9667166e-01	7.3528975e-01	7.5201470e-01	8.9469618e-01	8.4891921e-01	7.8701699e-01	6.0012877e-01	6.0144973e-01	-9.0204284e-02	1.4833306e-01	-1.3274296e-01	-2.7055722e-01	1.3966419e-01	-1.9255571e-01	4.4392553e-01	3.3789456e-01	2.5799426e-01	6.4261988e-02	-1.4319062e-01	-1.7233774e-01	-1.3392080e-01	-8.3009325e-02	-1.5294904e-01	-4.3946646e-02	-1.3470137e-01	-9.9928096e-02	-1.3577510e-01	-1.2573452e-01	-3.2465130e-02	4.0459931e-02	1.0454624e-01	-1.0899032e-02	7.0308857e-02	8.5614510e-02	-1.1516777e-01	-1.7385079e-01	-7.4730635e-02	1.2553887e-01	8.1969917e-02	-2.7918134e-02	1.0523295e-01	-6.6978611e-02	-1.7155175e-01	-2.0417748e-01	-1.0146271e-01	1.8670830e-01	-1.2096118e-01	-1.0059660e-01	-1.0772377e-01	-1.9233984e-01	-2.7495313e-02	-4.1918457e-02	-6.0674004e-02	4.7766067e-02	3.4923960e-02	7.0490249e-02	1.5001024e-01	8.7456651e-02	1.0599754e-01	4.8287483e-03	2.9291913e-02	6.8123937e-02	1.1451087e-01	-8.9366123e-02	-3.2159865e-03	4.1612990e-02	3.7080582e-02	-4.3129340e-02	-1.3811351e-01	5.5882681e-02	4.1024871e-03	2.0601168e-02	3.9612610e-02	6.2807761e-03	-6.2448550e-02	-2.9248971e-02	3.3033691e-02	1.2129056e-01	1.0204327e-01	-1.6449511e-01	-1.1071806e-01	-8.4052213e-02	9.3800254e-02	2.7282558e-02	3.7581671e-02	8.2064368e-02	2.6361415e-02	-4.7708854e-02	2.4441579e-02	4.6111230e-02	-1.0195363e-01	-5.5233181e-02	-7.2272271e-02	-1.4195001e-01	-1.5592049e-01	-1.2057167e-01	-9.4467260e-02	-1.9357766e-01	-9.3800813e-02	-1.5294388e-01	-9.5585831e-02	-2.1044616e-01	-1.2456246e-01	-1.7155080e-01	-1.5448344e-01	-2.7133194e-01	-2.7825212e-01	-2.2315878e-01	-2.4435258e-01	-2.3009332e-01	2.3601145e-02	1.0093400e-01	8.4283784e-02	4.5712125e-02	-2.5061050e-02	-4.5887358e-02	-3.7660740e-02	-2.6493445e-02	1.9085674e-02	-7.7899888e-02	6.0208891e-02	1.5986728e-02	1.4666659e-02	2.2776350e-02	8.9834072e-02	-1.8826647e-02	1.4978047e-01	1.8319632e-01	1.9133838e-01	1.8232048e-01	2.2268407e-01	3.4548086e-01	2.2773068e-01	2.2221218e-01	2.1282968e-01	1.7117527e-01	1.0566639e-01	1.4085934e-01	7.2188228e-02	-3.8243223e-03	-8.2686814e-03	8.9227259e-02	6.5996489e-03	8.5959211e-02	-1.7316170e-02	-4.4627335e-02	2.1001425e-02	1.1748569e-01	-1.9549133e-01	-2.1921261e-01	-9.7128615e-02	-3.9340030e-02	-8.4311001e-02	4.0605228e-02	5.5619366e-03	-2.0168914e-01	-1.6714314e-02	-1.2326985e-02	1.2507885e-02	-4.0120285e-02	4.3601286e-02	2.7906792e-02	2.3889847e-02	1.2851113e-02	-4.8486091e-02	-9.4638117e-02	-4.9698662e-02	-2.0429060e-02	-1.3643457e-02	1.3758036e-01	1.5812720e-01	-1.1013170e-01	1.6475391e-01	4.9580839e-01	3.7232488e-01	4.2524609e-01	1.3610494e-01	-1.1623005e-01	-2.2405495e-01	-2.7393660e-01	1.0628609e-01	6.9609828e-02	-1.6835241e-02	-4.2621493e-02	1.2030807e-02	-2.9096106e-02	-1.8040765e-02	-2.0999575e-02	-2.4392415e-02	2.5633892e-02	-4.8073921e-02	-4.9256649e-02	5.1626801e-02	-2.0475741e-02	2.7710706e-02	-8.1901010e-03	4.6537448e-02	5.5997334e-02	-3.5520878e-02	-9.3007833e-03	-2.2183845e-02	-1.0798746e-01	1.5061073e-01	9.1493227e-02	-1.4436917e-01	-2.7491397e-03	1.2048962e-02	-1.9189224e-02	-1.1857610e-01	-1.8474978e-01	2.0059434e-01	3.3560055e-01	9.4988607e-02	8.5026994e-02	4.4114012e-02	-7.2163157e-02	-1.6610688e-02	-7.6997474e-02	-3.3149764e-02	-5.1544711e-02	-1.7955668e-01	-1.7304461e-01	-4.6196625e-02	-1.4001831e-01	-1.6667548e-01	1.8051768e-02	-2.8324910e-02	-3.9071329e-02	-2.7863441e-02	7.2575845e-02	1.4299352e-01	1.0561624e-01	1.5683170e-01	1.7953120e-01	2.1938705e-01	1.9374551e-01	2.0193692e-01	3.0336493e-01	3.4319958e-01	2.5662938e-01	2.4519210e-01	1.0752863e-01	3.2208674e-02	-1.1641259e-01	1.1580738e-01	-1.5265651e-01	-1.4381050e-01	-4.4145476e-02	-8.6222298e-02	-3.6507014e-02	1.5319935e-02	8.4383607e-02	1.1189178e-01	2.4534199e-02	8.5020274e-02	1.8877850e-01	1.5100233e-01	2.2423252e-01	1.3855366e-01	2.0586883e-01	1.5235585e-01	2.0915514e-01	2.8869349e-01	2.0549105e-01	4.2958713e-01	4.2073247e-01	6.3748193e-01	6.8086660e-01	7.5285083e-01	7.4901038e-01	8.6641431e-01	7.9449719e-01	7.4786943e-01	5.2233535e-01	3.6345947e-01	2.8038868e-01	1.9052494e-02	6.0745940e-02	-1.0585425e-01	-1.8727051e-01	1.2991212e-01	9.7669087e-02	-1.1329446e-01	-2.4093203e-01	-5.5357598e-02	1.0687080e-01	5.5868909e-02	6.3489419e-03	1.1559226e-01	-5.4097166e-03	-3.9759733e-02	-3.4409750e-02	-3.0217474e-02	2.9909678e-02	1.5557148e-02	1.5863709e-01	5.8595326e-02	-5.1938105e-02	3.9135132e-02	4.0341444e-02	4.1105997e-02	-8.8219330e-02	-2.0351253e-01	3.3910166e-02	9.9360207e-03	2.8438585e-02	-8.1832923e-02	-1.1125606e-01	-5.6391809e-02	-1.4298850e-02	1.8441619e-01	2.5849041e-01	1.1935002e-01	-1.5634423e-01	2.9399052e-02	6.2163446e-02	1.9328451e-01	-8.9853043e-03	-4.9582962e-02	1.2370508e-02	-5.2422276e-03	3.0760821e-02	7.4631393e-02	-5.7950657e-02	-1.5891684e-02	5.4632560e-03	1.7485216e-02	3.5418600e-02	4.5540240e-02	1.9840701e-02	9.7607337e-02	1.0125215e-01	7.2173372e-02	5.4458939e-02	-4.5856353e-02	-6.4069360e-02	-1.2635571e-01	-2.0976555e-01	-1.8532608e-01	-1.2671778e-01	-1.0999939e-02	1.8002991e-01	-5.9648912e-02	-7.8585468e-02	-1.8698549e-02	-3.9934527e-02	-2.2327278e-02	-2.0266633e-02	1.0377591e-02	8.1554197e-02	1.2239044e-02	-3.0082570e-02	-2.3521792e-02	4.0841095e-02	9.0641557e-04	9.8219533e-03	-3.4719594e-02	6.5792479e-02	6.0957476e-02	-4.6520967e-02	2.0218825e-01	-2.0988856e-02	3.7565142e-02	1.5965528e-03	1.2179703e-02	-9.8313140e-03	7.2112069e-03	-2.7933016e-02	-1.3656501e-01	-1.3161337e-01	-8.8703535e-02	-6.4310946e-02	-1.5271960e-01	-1.9377965e-01	-1.7170253e-01	-2.4841416e-01	-1.9293858e-01	-2.3328027e-01	1.3542284e-01	-4.9470231e-02	-1.1369783e-01	-1.5848236e-01	-7.0635282e-02	-1.2954411e-01	-2.0115416e-01	1.8597405e-02	-4.5555923e-03	1.7688692e-01	1.7690206e-01	1.0820201e-01	1.3886937e-01	1.9293931e-01	1.5426414e-01	1.3679709e-01	1.6462491e-01	1.9535330e-01	1.5649299e-01	1.3660596e-01	6.0590424e-02	9.3361720e-02	1.5045960e-02	7.0245542e-02	-4.9265616e-02	1.2698954e-02	-1.3105348e-02	4.2913510e-03	-1.4515176e-01	-8.0966242e-02	2.7091124e-03	3.2105509e-02	-2.1709171e-01	8.2192391e-02	-6.4749382e-02	-1.1265846e-01	5.2945200e-02	2.2807714e-01	-9.5732130e-02	-2.4265987e-01	-5.0341051e-02	3.5971794e-02	1.2552176e-01	2.3242672e-01	1.4295787e-01	7.4402146e-02	-2.1465102e-02	-2.3628704e-02	1.9279394e-02	-1.0861340e-01	-4.0050235e-02	-1.7406896e-02	-3.8005471e-02	-4.6725214e-02	2.7424581e-02	8.5317269e-02	2.1472170e-03	2.7772387e-02	-1.0937579e-03	-9.3995452e-02	-1.0407357e-01	-3.1507909e-02	8.6561181e-03	6.7392908e-02	9.8261334e-02	6.5062501e-02	4.5060422e-02	-6.2116243e-02	2.8880467e-04	-1.5871584e-01	-2.9799612e-02	6.8788230e-02	2.9187580e-03	5.6521581e-03	-1.3667956e-01	-4.0203733e-03	4.2680673e-02	-3.8433988e-02	-5.5071037e-02	2.4735935e-02	4.1646820e-02	9.0036746e-03	-5.9995670e-03	8.6707115e-02	2.8420378e-02	4.3561328e-02	-6.3436352e-02	8.7729841e-03	5.9073761e-02	-6.8833441e-02	1.2165297e-02	-4.6680234e-02	-3.3528015e-02	-3.8318526e-02	6.7096889e-02	2.4098597e-02	-8.3846331e-02	1.0930337e-01	-7.3530376e-02	3.8682469e-03	4.4503011e-02	-1.7655845e-01	2.3866554e-03	1.4081848e-01	-8.2280068e-03	-7.8663759e-02	-2.2839074e-01	-3.0232176e-01	-1.1256793e-01	-8.8115163e-02	-1.2567502e-01	-2.7000192e-03	2.8955344e-02	1.6345395e-01	1.1559955e-01	2.5194195e-01	3.2988760e-01	2.8174618e-01	3.4208465e-01	4.0584168e-01	2.5464320e-01	3.5567644e-01	2.7495059e-01	2.5046510e-01	2.1140508e-01	1.8312375e-01	1.7241344e-01	3.4293409e-02	-1.2168326e-01	-1.7143747e-01	-2.7768323e-01	-3.3281001e-01	-3.0423996e-01	-4.7995234e-01	5.8037378e-02	2.6790669e-02	1.5170680e-01	8.7841928e-02	-1.7318253e-03	7.8987822e-02	4.6012059e-02	-7.5422816e-02	-9.2437249e-03	-6.2113039e-02	-1.4181685e-01	-2.1698046e-02	-2.2024426e-01	-3.3549181e-01	-1.8242499e-01	-2.6404431e-01	-3.7228513e-01	-4.3531287e-01	-4.6207952e-01	-3.6697394e-01	-5.4074907e-01	-5.4133362e-01	-5.5678302e-01	-5.5237573e-01	-5.0044656e-01	-4.8071846e-01	-3.2713857e-01	-2.1631347e-01	-2.3566011e-01	-1.3960749e-01	-6.4121470e-02	-8.4076233e-02	9.9569184e-01	-5.0927347e-01	1.1565257e-03	5.4808231e-03	1.1243859e-02	6.7301720e-02	-1.6289246e-01	-1.6792934e-01	-8.4419943e-02	5.7044622e-02	1.9195814e-01	1.6994748e-01	1.7565325e-01	-6.4055502e-02	-1.5604809e-02	-4.1145716e-02	-1.0475215e-01	-3.5465676e-02	-6.7141823e-02	2.4572160e-02	8.3024740e-02	-2.2781011e-02	5.5692419e-02	-2.4123413e-02	-6.9580749e-02	-3.7552379e-02	8.2358234e-02	1.6420080e-01	-1.0968599e-01	-1.3071664e-01	-2.8123815e-02	4.8718646e-02	-1.9061010e-03	5.1753488e-03	2.8685585e-02	1.2516825e-02	4.0897980e-02	-4.6581328e-02	3.2519590e-02	-1.7455672e-03	-5.2677159e-04	-1.4579605e-01	5.3396039e-03	1.3661233e-01	-2.1495920e-02	-5.2962665e-02	-4.5069739e-02	-2.4931333e-03	-3.8057581e-02	-3.7460752e-02	-6.0671169e-02	-2.3576347e-02	3.6773905e-02	-2.8485991e-02	-2.5447983e-02	1.1022553e-02	1.1909272e-01	-6.4717025e-02	7.4583121e-02	2.5976656e-02	9.2546791e-02	-1.7617781e-02	-2.2858353e-02	4.9731195e-02	2.0157995e-02	-1.8177284e-02	-3.7471067e-02	1.6313979e-01	-1.6573351e-02	-2.9806113e-01	-1.0559557e-01	1.9680753e-02	5.4428078e-02	3.9117556e-02	-4.7942482e-02	-4.0478941e-02	-1.2010945e-03	-3.4632452e-02	-2.7455000e-02	-7.1315044e-03	4.5683775e-03	4.5071878e-03	7.4284770e-02	-1.8623160e-02	-4.9608544e-02	7.7225201e-02	-1.1920717e-02	-1.1715644e-02	-2.2563197e-02	5.6600437e-02	-4.7407504e-02	-1.4328131e-01	-1.6091660e-01	-2.1712087e-01	-2.2895795e-01	-1.2613514e-01	-2.0989221e-01	-1.2453363e-01	-2.0105180e-01	-3.3002015e-02	-9.6002899e-02	5.8456524e-03	-5.3790573e-02	3.0209990e-02	2.4982661e-02	-1.0013414e-01	-5.1131997e-02	-8.4888563e-02	-7.7155113e-02	-2.2365287e-02	8.7707400e-02	3.7588213e-02	1.0044662e-01	-1.5807817e-02	1.2747985e-01	9.1847844e-02	8.2382552e-02	1.0863384e-01	7.7745520e-02	1.5137731e-02	2.1203661e-02	7.3258452e-02	-2.5072856e-02	5.5163715e-02	6.2970266e-02	-6.4853579e-02	-9.7146347e-02	-1.8689154e-01	-8.4931381e-02	-1.3879971e-01	-7.7976100e-02	-1.9918090e-02	-1.2244518e-01	-1.2003337e-01	3.1409111e-02	8.9791882e-01	-6.9490126e-03	2.2746122e-03	7.6186471e-03	6.8730317e-02	-1.8185803e-01	-2.3476584e-01	-6.6109166e-02	1.2492790e-01	2.1201757e-01	2.3207147e-01	1.1216403e-01	6.8538889e-02	-3.8820539e-02	-1.0886412e-01	-5.3257793e-03	-3.7910271e-02	-8.1719354e-02	-7.2330885e-02	-1.0263486e-01	3.2080550e-02	1.8653585e-02	-1.5570041e-03	6.3491762e-02	-7.6885015e-04	9.4975509e-02	6.8330765e-02	3.2335449e-02	-1.2931912e-01	3.9229233e-02	3.1610143e-01	-8.3187476e-02	-2.2738086e-01	-3.1339597e-02	2.6391461e-01	1.7729601e-01	-1.1848263e-01	1.5586660e-02	-1.8448154e-02	-2.8631825e-03	-7.3355578e-02	-4.5877583e-02	1.1884370e-02	-7.5916909e-02	8.1332669e-02	-4.5054056e-02	-3.1459406e-02	-2.8219025e-03	-8.7672047e-02	2.6449142e-02	-1.1688873e-02	-5.7233781e-02	-1.6050933e-02	-4.5879348e-03	1.2837379e-02	1.7553125e-01	3.0416479e-02	8.4771603e-02	-3.2530464e-03	1.9763760e-02	3.4404114e-02	5.9964377e-02	6.4159565e-02	6.2926025e-03	-5.4905545e-02	-1.0294305e-01	1.1573397e-01	1.4988479e-01	-9.4967090e-02	-1.3417315e-01	8.7108083e-02	1.2151878e-01	8.0502555e-02	1.1536128e-01	7.3663764e-02	2.4283815e-02	1.0716750e-01	4.9084582e-04	-4.8482813e-02	-1.1611531e-01	1.3675448e-03	-1.0373086e-01	-1.3746201e-01	-3.9801177e-02	-1.5813778e-01	-2.0530835e-01	-1.6414163e-01	-2.2948383e-01	-1.9486386e-01	-1.4946653e-01	-1.2431207e-01	-1.9969814e-01	-2.0350011e-01	-1.0150309e-01	-1.0508413e-01	7.2083920e-02	2.4465678e-02	1.5582384e-01	2.7076691e-01	2.7944896e-01	4.0441653e-01	-1.3453831e-01	-1.1906939e-02	1.7005226e-01	1.1553249e-01	1.7886500e-01	6.3146397e-02	3.1920161e-02	-8.1856176e-02	-6.3653186e-02	-2.6786441e-02	-4.9592793e-02	-1.5953112e-01	-1.4831385e-01	-2.1251689e-01	-2.6700681e-01	-1.7087045e-01	-2.1194990e-01	-2.4139701e-01	-1.5100361e-01	-2.0271373e-01	-1.0986904e-01	-5.5622600e-02	-1.0648028e-02	8.1412964e-02	-8.2566530e-02	-1.3925170e-03	-4.5005530e-02	-2.4522033e-02	-1.7149088e-01	-5.4742113e-02	-1.3898101e-01	-9.2466675e-02	-5.7505494e-01	-5.2658325e-01	2.2471849e-02	2.8634731e-02	-1.1425626e-02	3.5694931e-02
4.3079737e-01	5.7797915e-01	-4.7620273e-01	-2.0389734e-01	5.6908852e-01	7.8445274e-01	7.9136348e-01	4.1279835e-01	1.3898034e-01	7.6689655e-01	-6.3298869e-01	-8.5915124e-01	-6.0626358e-01	8.6145461e-02	2.7895993e-02	-3.1651609e-02	-5.3167349e-01	4.3275753e-01	-2.6246512e-01	4.4937086e-01	1.9917198e-01	7.2757584e-01	5.9551132e-01	2.1287125e-01	4.4495475e-01	1.0632834e-01	-1.0579360e-01	3.7669939e-01	2.4324527e-01	7.1403575e-01	7.4809086e-01	1.0890454e+00	2.7348045e-01	6.8679619e-01	-5.0520027e-01	-1.8222378e-01	1.7535746e-01	3.0360690e-01	2.5747606e-01	1.1257509e+00	7.0099193e-01	-9.6306056e-02	-2.5206807e-01	4.9900466e-01	-3.0923706e-01	7.5070316e-01	4.2286146e-01	4.7733903e-01	4.8701152e-01	3.2168478e-01	-8.5165727e-01	6.3537276e-01	2.3109856e-01	4.8223950e-02	-5.6115997e-01	1.9540936e-01	3.4128666e-01	6.3501722e-01	3.6077338e-01	-1.9503339e-01	2.9351321e-01	6.5849096e-01	4.3273538e-01	4.9120581e-01
6.4691383e-01	-2.6213774e-01	5.7396299e-01	-6.0791981e-01	3.8823265e-01	-6.5576816e-01	5.7288045e-01	-1.7484544e-01	-1.7703025e-02	-4.5154932e-01	4.9564564e-01	1.0207570e-01	1.4543420e-01	2.5522962e-01	3.6125490e-01	-3.5265732e-01	6.7732252e-02	5.8653593e-02	4.4413960e-01	-3.8512770e-02	-8.4953897e-02	-6.4890540e-01	-7.5294696e-02	6.5203792e-01	-4.2208982e-01	1.1705481e+00	-2.7452755e-01	2.2954595e-01	-5.3764886e-01	-7.5446516e-01	4.2993358e-01	1.2577566e+00	9.6682322e-01	-5.0019461e-01	8.1327975e-01	8.3824390e-01	7.6835257e-01	3.3770642e-01	-8.3299726e-01	8.2520562e-01	6.7904192e-01	-7.4083382e-01	7.5189614e-01	-8.7376738e-01	6.0456401e-01	3.8852882e-01	-5.8034813e-01	-5.7578146e-01	5.0276536e-01	-2.5121129e-01	-1.5812869e-01	-3.7513599e-01	7.6004148e-01	2.5091168e-01	-8.9164637e-02	-5.8116311e-01	3.2225737e-01	2.0313080e-01	5.5275619e-01	-6.1414832e-01	-1.4697683e-01	-1.3998513e-01	-3.0476499e-01	4.7852200e-01
-1.3091776e-02	-3.3464774e-01	-1.5381816e-01	7.8577542e-01	5.2004683e-01	2.9490584e-01	-1.8766212e-01	3.2256901e-01	-9.0116568e-02	6.7523551e-01	-8.6600031e-04	-1.3845593e+00	-2.8608996e-01	1.7317357e-02	8.4816468e-01	-5.3503793e-02	-3.4740340e-02	-2.2596940e-02	-7.0257169e-01	-1.3802382e+00	2.9433239e-01	3.6530197e-01	8.0715269e-01	5.7223099e-01	4.3966106e-01	3.6877218e-01	-4.3826282e-01	-1.1049254e+00	4.0299210e-01	3.5900298e-01	7.3665398e-01	3.1176454e-01	3.4301266e-01	-4.4063136e-01	-6.7855102e-01	2.1326621e+00	-1.4570904e+00	-6.7190760e-01	-2.9589635e-01	-1.3171164e+00	5.7086909e-01	5.8352673e-01	-4.7415200e-01	-1.5233778e+00	9.9336162e-02	5.1998454e-01	-4.8885934e-02	6.1700082e-01	-3.6887065e-01	1.2456488e-02	-1.1794817e-01	4.0403566e-01	9.4308162e-01	4.5726851e-02	1.1384400e-02	3.3028784e-01	5.1127666e-01	-3.2091126e-01	-3.8510680e-01	-1.9291596e+00	3.3925009e-01	5.1372099e-01	8.5623538e-01	2.8220814e-01
6.9652575e-01	-9.7535169e-01	-5.4318601e-01	-8.0317956e-01	2.1125090e+00	-7.8251046e-01	9.8437059e-01	-3.3611390e-01
